// https://github.com/TFNN/DOCS
// slightly improved version of this code at: https://gist.github.com/mrbid/078f00cf2ef29dc358dba2832213ef44
#include <stdio.h>
#include <stdlib.h>
#include <stdint.h>
#include <math.h>
#include <string.h>
#include <locale.h>
#include <time.h>
#include <sys/time.h>
#include <x86intrin.h>

#pragma GCC diagnostic ignored "-Wunused-result"

const float aim_kernel[] = {-0.19327752,0.124686986,0.37370798,-0.2852069,-0.082761966,0.13382491,0.01974862,0.037259225,0.4398151,-0.040388502,0.08825013,0.27220935,0.036384005,0.12420277,0.26461726,-0.33158925,-0.23758925,-0.13682137,0.0055775666,0.4379265,0.46934965,-0.10214631,0.27772677,0.53777134,-0.18111162,0.18091843,0.20943862,-0.6182116,-0.24639174,-0.3597136,0.017594066,0.2047724,0.05069721,0.060726784,0.27080947,0.17163448,-0.13490547,-0.16400181,-0.33388954,-0.252471,0.022716217,-0.34458286,0.05654164,0.17877182,-0.28399226,0.091274954,0.24912888,-0.33767945,0.16348748,0.47401583,0.037683316,0.18483055,0.20680134,-0.07365435,0.037761796,0.042702384,-0.23900746,-0.21063231,-0.18643099,-0.1277415,-0.06634729,0.09069013,0.44893324,0.08931375,0.04608536,0.37131938,-0.15913571,-0.17513552,0.18602179,-0.4426947,-0.37940174,0.119655855,-0.18042603,0.002837639,0.3397532,0.19654652,0.16562061,0.40455064,-0.027883159,-0.14375985,0.15055376,-0.18512651,-0.31814831,0.006315851,-0.31157675,-0.28888908,-0.18178487,0.05010384,0.0727428,0.42933798,-0.35675952,-0.43303645,-0.09720461,0.10463726,0.105740875,0.37934005,-0.032281592,0.054394357,0.15595381,-0.17250484,-0.02442496,0.055849493,-0.11641861,0.15055534,0.5026218,0.06659389,0.34390154,0.46283993,-0.15980914,0.1649617,0.19761255,-0.042976864,0.17805362,0.06285308,0.25756982,0.4176789,0.30944738,-0.28118813,-0.017522398,-0.17809811,-0.16199747,-0.034337044,-0.20145759,-0.052724723,0.16118717,0.03418367,0.04430402,0.10464968,-0.29149792,0.31966248,0.5669121,0.2064642,-0.30632532,-0.059357446,-0.52204084,0.08157973,0.21586037,-0.06661936,-0.08841221,-0.1538176,-0.19659504,0.032013,0.0060687675,-0.085707165,0.07903763,0.2572203,0.43363386,0.060930826,0.052910954,0.073946476,-0.18995802,-0.31248203,-0.26128533,-0.09512128,-0.1899678,-0.0014393468,0.112250455,0.10154261,0.3992677,0.018591667,-0.19674434,-0.08200802,-0.23758988,-0.29830214,-0.26296985,-0.026587244,-0.04438853,-0.053409595,0.19578335,0.08190258,0.21574125,-0.36176735,-0.31869468,-0.1011674,-0.2753898,-0.34852713,-0.13578829,0.20190267,0.17681769,0.302853,0.4858322,0.4030388,0.36288312,-0.2362043,-0.10301767,-0.02867527,0.079307154,0.12547386,0.12294592,0.012391511,0.07815243,-0.03126551,-0.27927935,-0.01560348,-0.049318176,-0.0969899,0.0842635,0.0629576,-0.2760249,-0.19388475,-0.11532583,-0.31015927,-0.12344775,-0.18895295,-0.0042267023,0.23214532,0.070994444,-0.08280034,0.17235732,0.11078537,-0.034428034,0.08802142,-0.12253744,0.02273547,0.38465554,0.08876253,0.07151714,0.46481583,0.21386741,0.25959975,0.47997364,-0.0816786,0.035317957,0.23174796,-0.040939197,-0.095253326,-0.21107712,-0.26878244,-0.109172165,-0.1810116,-0.15432337,-0.1436548,-0.17749617,-0.017055487,-0.0874073,-0.17660429,-0.08388399,-0.34953225,-0.27837119,0.18743713,0.20695435,0.11701346,0.46445274,-0.23889354,-0.117413625,0.10777559,0.40773416,0.26594323,0.25208113,-0.17504252,-0.35377714,-0.2532956,-0.01649961,-0.2453797,0.017891377,0.06576107,-0.037534382,0.18742892,-0.15008892,-0.19086488,-0.027074652,-0.10373891,-0.20005654,0.08837269,-0.0375165,-0.20128015,-0.31959543,-0.20227681,-0.16394632,-0.29690233,0.22205995,0.23771752,0.17870349,-0.3337357,-0.10643295,-0.12972574,-0.28985962,-0.13859636,-0.26402932,-0.62563264,-0.22366671,-0.3642459,-0.058449905,0.12169597,-0.007977076,-0.4132145,-0.27789515,-0.5204686,-0.47174254,-0.34035504,-0.38156804,-0.03501536,0.36103734,0.09924199,-0.08559967,0.054341283,-0.110253185,0.28280166,0.53296906,0.059689347,-0.66548926,-0.35415208,-0.6919797,0.3378603,0.67282766,0.06250238,0.3702812,0.58805215,0.012995686,0.687339,0.55367243,0.22516671,0.4392185,0.19609913,0.08515264,-0.08174943,-0.007621002,0.14570081,-0.21053414,-0.18353501,-0.17094472,0.0064027556,0.013766926,0.18617356,0.20114204,0.039260767,-0.024901617,0.21940167,0.06232439,0.1658551,0.57150674,0.33845633,0.38992316,0.29391274,0.123951636,0.16699335,0.14221796,0.07606459,0.1342531,-0.09931685,-0.10443696,0.123273574,-0.05200084,-0.15232952,0.12251159,0.20592849,0.16209021,0.32454464,-0.3995478,-0.37191975,-0.24992663,-0.08803735,-0.12884523,-0.21010247,-0.23881525,-0.26498562,-0.12489393,0.09927737,0.20497851,0.38564852,-0.032680076,-0.08230928,-0.27489755,0.23052812,0.4080894,0.24961342,0.22029893,0.2296998,-0.008081248,-0.30094433,-0.088160105,-0.4438886,0.31535205,0.5104248,0.32715943,0.25335523,0.4242308,-0.27754086,-0.59901404,-0.45039383,-0.96518147,-0.36529002,-0.06652452,-0.49703822,-0.30348,0.07515748,-0.39277318,-0.36252013,0.090342514,-0.2318141,-0.4067755,-0.11556669,-0.6076554,-0.029133799,-0.060321447,-0.5174384,-0.096699566,-0.22141124,-0.56697774,0.08334537,0.013586242,-0.1769731,0.2284832,0.114211336,0.114500046,-0.35407665,-0.31651008,-0.32951495,-0.12041573,-0.3190036,-0.29349956,0.008262205,-0.19772604,-0.23577198,-0.006589447,-0.24066737,-0.3071018,0.37444532,0.19770657,0.20834361,-0.18539368,-0.37358966,-0.32166314,-0.25840804,-0.37881637,-0.17233679,-0.58757937,-0.43718243,-0.28759164,0.066443756,0.2766494,0.27593023,-0.0047848024,0.06140557,0.14172049,0.15957654,0.094534546,0.009133066,0.17384325,0.012762287,0.080153,-0.17977102,-0.23713931,-0.18470638,-0.4699719,-0.21161008,-0.2724612,-0.42649513,-0.11269947,-0.23298739,0.11653127,0.26358074,-0.085184686,0.07938225,0.016669337,-0.31333002,0.13065039,0.32150295,0.08799417,-0.03344642,0.1033021,-0.27215853,0.40594634,0.39115518,-0.02119295,-0.24364878,-0.044903375,-0.050877955,-0.29300088,-0.071007095,0.0057773315,-0.29541248,0.0468924,-0.19615072,-0.2129591,0.0800738,-0.24031085,0.055341404,0.004026782,-0.48987097,-0.16387337,-0.18586046,-0.36595815,-0.0036795547,-0.07837881,-0.18346858,0.51098716,0.334702,0.37108615,0.5985243,0.3818375,0.46453056,0.080420464,-0.03660172,0.22607006,-0.08482728,-0.28023604,-0.23988645,0.2787338,0.00048385788,-0.07052355,0.09368578,-0.107256055,0.036392637,0.20005243,0.24613862,0.4661547,-0.36858898,-0.32171506,-0.051408295,-0.2542486,-0.05241348,0.10828713,0.24926035,0.22172925,0.14323176,0.124551706,0.18347602,0.062319387,0.410765,0.06712773,0.0770995,0.30060855,0.30010495,0.20390363,-0.29903957,-0.21091782,-0.2815379,-0.24710561,-0.08672218,-0.265231,0.36334622,0.46536598,0.18396576,0.1984987,-0.13608992,-0.50068486,-0.06066662,-0.106999524,-0.4863172,-0.25928557,-0.090611935,-0.2874067,0.11322277,0.29849628,-0.053404294,0.3639782,0.24208663,-0.19620433,0.10168803,0.0016895934,-0.123698235,-0.0069563896,0.09744923,0.008120462,0.34660944,0.36778423,0.08374716,-0.3160482,-0.032673176,-0.26020208,-0.123151265,-0.26827022,-0.49867785,-0.028381826,0.073138915,-0.035525087,-0.14136238,-0.05820335,0.035379734,-0.12479457,-0.22368796,-0.012833268,-0.3276617,-0.27228147,-0.2924425,0.018124642,0.006773475,0.12964089,-0.22418894,-0.11060131,-0.041445743,0.12740216,0.071749516,0.027557269,-0.033853695,-0.09488394,-0.089930415,0.22218171,0.1760973,0.3033118,0.030214407,0.20758593,0.3564614,-0.3016685,-0.0062245517,0.18967064,-0.12683621,-0.2913528,-0.57809323,-0.010643392,0.07934635,-0.19432093,0.048111867,0.049196314,-0.18141185,-0.15756854,0.057950538,-0.17814131,-0.28151712,-0.06648841,-0.17453608,0.25355798,0.5114953,0.32282865,-0.014644689,0.23723352,-0.15892184,-0.17313996,0.010409024,-0.4486816,0.39164948,0.4665927,-0.019436037,0.22433776,0.23815846,-0.06498815,0.05091728,0.01866952,-0.42625672,0.19416736,0.013741067,-0.3959064,0.27207366,0.21539055,-0.41648737,-0.17754066,-0.08495046,-0.23542266,-0.47054237,-0.123307906,-0.2785658,-0.20187584,0.08955429,-0.011068634,0.123418055,0.3292765,0.06913307,-0.089859374,0.09025344,-0.22226547,0.41324702,0.5053915,0.50129163,0.22683345,0.08781578,0.09214779,-0.024088869,0.0807785,-0.014966389,-0.19329849,-0.182179,-0.12624638,-0.19841662,-0.32664418,-0.22064021,0.12825829,-0.12608299,-0.038811065,0.012531629,-0.21961246,-0.26291677,0.3488266,0.51311797,0.8122442,-0.19694522,-0.06311656,0.2796988,0.0054686633,0.058466114,0.18339391,0.03580919,0.24277095,0.08028694,-0.09935556,0.123743,-0.044189308,-0.23779109,-0.038836826,-0.17867856,-0.057187736,0.15728235,0.06505253,0.02319977,0.2816881,0.04964915,-0.042887907,0.41713014,0.21705808,0.09918596,0.2782119,-0.09980751,-0.028585114,-0.0138856415,-0.42410076,-0.45211428,-0.46731067,-0.5616175,0.12388824,-0.030267855,-0.3460999,0.13243414,-0.019666882,-0.28518805,0.3174169,0.27542803,0.09436344,-0.35820344,-0.2228908,-0.2855771,0.009249856,-0.046642773,-0.12829782,-0.0033353167,0.073998995,0.0046740947,-0.6908347,-0.49463138,-0.431013,0.091826014,0.19232833,-0.08810633,0.019479308,-0.02479131,-0.34355465,-0.65549743,-0.5689892,-0.72852683,0.327915,0.38333052,0.27060544,0.0023472076,0.07408783,-0.30045146,0.08614386,0.19150224,0.0636234,0.08259857,0.21069083,0.36812454,-0.14092422,-0.33668968,-0.26708207,0.10678268,0.09556576,-0.05991463,0.39040923,0.4845728,0.6905536,-0.4867725,-0.31750605,-0.2567351,-0.22743478,-0.1100636,-0.082534395,-0.031180618,0.03487396,-0.21679318,-0.27906263,-0.11413512,-0.08152853,-0.56185734,-0.3688193,-0.36864293,-0.4876696,-0.034523774,0.013848665,-0.5239368,-0.1305834,-0.28696743,-0.27814075,-0.1838473,-0.38553125,0.26371652,0.55960375,0.24695326,0.56914204,0.6169432,0.30167258,-0.21159828,-0.35292813,-0.38330156,0.3398217,0.075604655,-0.06666286,0.4068858,-0.05207004,-0.4850213,0.40933943,0.34589353,0.29950273,-0.39945498,-0.49155024,-0.51130533,0.03138195,-0.09303552,-0.081908554,-0.40654907,-0.41723073,-0.50693506,-0.64019734,-0.40553126,-0.41949144,0.022174673,0.010233416,-0.023233842,-0.10552824,-0.03882162,-0.19529422,-0.3207694,-0.091692716,-0.2616236,-0.14625008,-0.0062897424,-0.1896987,-0.24039562,-0.058442626,-0.045695,0.11214357,0.19466089,0.3199993,-0.35136005,-0.33579457,-0.03639183,0.32084915,0.27977708,0.24064967,-0.041266754,-0.15583026,-0.010410771,0.19551317,0.21214432,0.37355724,-0.032588203,-0.16403906,-0.081666194,0.31493875,0.383607,0.23849162,-0.013127915,0.029316492,-0.17160797,0.1641534,0.1655013,-0.16405845,-0.45096236,-0.38654745,-0.5126035,-0.1771029,-0.10032021,-0.21127407,0.19535413,0.36995256,0.26721263,0.07122422,0.025259797,-0.08918763,-0.13236164,-0.116420366,-0.26617774,0.33314574,0.3401783,0.11839288,-0.043709315,-0.34855086,-0.27096575,0.24262291,-0.16289489,-0.5023805,-0.002247915,-0.20640898,-0.3972838,-0.2786784,-0.22307247,-0.35959187,0.4298327,0.35626182,-0.030848222,0.103534296,0.18688893,0.20532367,0.42215368,0.45400363,0.26133442,-0.16173004,-0.10038549,-0.14539617,0.32735685,0.24514033,0.26649052,-0.1335865,-0.02208272,-0.074588716,0.22800961,0.371562,0.5365363,0.08378219,-0.029401505,0.21634088,0.65556633,0.5269324,0.66087073,-0.10279823,-0.31405276,-0.033573747,0.0008113186,0.08182861,0.402205,0.43598214,0.3873081,0.5162816,0.10918722,-0.14708559,-0.11248056,-0.27301544,-0.21618232,-0.015343133,-0.13579383,-0.024012033,0.055809114,0.25162417,0.18726397,-0.040197156,-0.33194926,-0.31091362,-0.31133893,0.28345516,0.03982995,-0.37373462,0.104905084,0.09918474,0.08254315,0.20504853,0.074191935,0.080083,-0.20314167,-0.13129474,-0.064640194,-0.12671849,-0.17548846,-0.052253157,-0.184477,-0.086240746,-0.37541562,-0.0041856347,-0.07721511,-0.18816493,0.5786503,0.25006425,-0.0031132065,0.46600533,0.041268475,-0.19948535,0.1931121,-0.2641374,-0.3308372,-0.053420693,-0.24779136,-0.26341176,-0.71058035,-0.59765124,-0.43441418,-0.5821923,-0.6738255,-0.51802254,0.068033144,-0.033789515,0.2422898,0.07202144,0.03213316,-0.047746934,-0.18640855,-0.17906663,0.17755917,-0.3270069,-0.24086906,-0.0051451656,0.12447321,0.023903385,0.15137799,-0.12352133,-0.25541204,-0.05306768,-0.41485256,-0.6743275,-0.60713816,-0.19005324,-0.051996898,0.23687775,-0.5760317,-0.41457048,-0.047687914,-0.24936107,-0.41036233,-0.31779742,0.041731622,-0.011241898,0.08800394,0.15348977,0.12747927,0.18481484,0.05105722,0.0019764337,0.078696184,0.18151538,0.14639843,0.040709846,-0.0033409449,-0.04838078,-0.1601979,0.3873903,0.31281713,-0.089128,-0.06953385,-0.22342744,-0.5738963,-0.29769838,-0.19339614,-0.21995278,-0.36660433,-0.19813554,-0.07589628,-0.1390187,-0.23857951,-0.3596565,-0.37853873,-0.38344374,-0.54082096,-0.04015285,-0.21009953,-0.5158219,-0.19308087,0.12588914,-0.010472584,0.3380128,0.28305498,0.14806768,0.4182706,0.32660145,0.54832166,0.012073926,-0.061932612,0.13235371,0.27343372,0.23845166,0.51063305,0.13402179,0.028509468,0.4103515,-0.07291425,-0.10218346,0.08120584,0.31968644,0.33669674,0.43092418,-0.005634967,-0.061015625,0.0703403,-0.46253443,-0.31504172,-0.093678705,-0.039891437,-0.11948765,0.09598127,0.17866705,-0.02137198,0.39712963,0.14346847,-0.1918455,-0.11406912,0.17603746,-0.14731222,0.14285287,-0.08490222,-0.080317646,0.086823076,-0.6609808,-0.77951175,-0.53220946,0.45663673,0.39326566,0.44177613,-0.08113763,-0.1487666,-0.032858785,-0.34873453,-0.31019607,-0.14732078,0.26949763,0.289549,0.109660864,0.11895035,0.31322503,0.05237852,0.19726077,0.1740172,-0.105787486,-0.14491573,-0.18548636,-0.26164553,0.07579714,0.35791123,0.2276081,-0.22713055,0.011099858,0.07770649,-0.20163068,-0.0717696,-0.06535395,-0.069752,-0.015215905,-0.19117853,0.26774716,0.11547596,0.08283994,0.32422236,0.15131275,0.2938381,0.3542257,0.12925178,0.11233217,-0.12039497,-0.40128094,-0.58677065,0.114869274,-0.25615722,-0.12840226,0.2855423,-0.0284335,0.15712284,-0.15820995,-0.3162198,0.040326957,-0.21743669,-0.40280986,-0.33827963,-0.02107948,0.02621367,0.086955585,-0.061809663,-0.01712363,0.19011296,-0.20814577,0.011698971,-0.08776226,0.07313074,-0.21648864,0.08269235,-0.06200591,-0.5205828,-0.107805155,-0.10340723,-0.4157201,-0.370704,0.28662005,-0.08469326,0.05274536,0.8589342,0.5829305,0.721345,0.081468716,0.0482213,0.07689421,-0.14684711,-0.20542596,-0.36769867,-0.31385258,-0.23510918,0.037499256,-0.15649478,-0.1994357,-0.15790798,-0.09906445,-0.045436073,0.0026759687,0.1273579,0.26871082,0.22853363,-0.11036772,-0.23142424,-0.31134674,-0.17969073,-0.037869513,-0.33785036,-0.014783498,0.20274176,0.07819165,-0.65286314,-0.44385433,-0.54542994,-0.05080082,0.1240023,-0.07466654,-0.276706,-0.44493777,-0.56729674,0.31725815,0.07922674,0.009791251,0.27801746,0.051917862,0.025872663,0.06211282,-0.24052659,-0.0122800125,0.391763,0.28213057,0.3269172,0.4921721,0.5408907,0.32830337,0.47991973,0.3938851,0.6130083,-0.3262882,-0.4569984,-0.020423904,0.19429623,-0.09205116,-0.022361273,-0.01882849,-0.28926155,-0.060468584,-0.20016088,-0.45400316,-0.18755536,0.03467486,-0.095249586,-0.22239035,-0.26732704,-0.6315522,-0.553365,0.5783245,0.18658628,0.2559861,0.32875222,-0.013997746,-0.027867878,-0.2967475,-0.52804327,-0.43011138,0.09416451,-0.104542,0.08023724,0.21982178,0.24343975,0.228623,0.15323474,0.25524786,0.31357267,0.24045737,0.30586392,0.53399307,-0.050768595,-0.052070495,0.16868113,0.050230537,0.14286987,0.4039022,0.39202148,0.3019714,0.33514106,0.21836647,0.1443137,-0.0076088547,0.25431123,0.3018217,-0.020598283,0.07561564,-0.028149057,0.22469695,-0.031626843,-0.09231574,-0.19225585,-0.22119217,-0.30272803,-0.56152815,0.011156569,-0.29593554,-0.40385154,0.22984658,-0.102625206,-0.19765334,0.32217836,-0.00950003,-0.017028723,-0.21804486,-0.34774518,-0.18124218,0.40781146,0.14335749,-0.048421428,0.061622452,0.11857085,-0.074864246,-0.265969,-0.122189954,-0.23822336,-0.24704336,-0.36610994,-0.38520172,-0.0471948,-0.21552698,-0.1341842,0.20529267,-0.14582214,-0.28715223,0.8525291,0.30704084,0.116391316,0.35948157,0.005869836,-0.47305983,0.8240622,0.27012816,-0.2288207,0.3398092,-0.068297476,-0.0053921514,0.4435462,0.010353978,-0.15884145,0.25802636,-0.0010376736,-0.2745492,-0.13108535,-0.2639117,-0.14910874,-0.09852038,-0.049462043,0.07244659,-0.2701603,-0.21660629,-0.12297207,-0.27835009,-0.086567484,0.26375872,-0.14103164,-0.0980459,-0.052502453,-0.34922916,-0.46563438,-0.40105876,0.15881838,0.10826134,-0.0046074595,0.36348724,0.43245956,0.16936429,-0.33414072,-0.4215339,-0.5521938,-0.2301959,-0.32874098,-0.08751794,0.09261057,-0.044910025,0.058623157,-0.004185957,-0.14029557,-0.22597955,0.9233913,0.5078704,0.40950954,0.48070592,0.068685636,0.26452103,0.22048074,-0.13605052,-0.07244013,0.25775513,-0.08432319,-0.1120773,0.26982203,0.07089616,0.09542815,-0.19076718,-0.55626667,-0.39855224,0.41057885,0.19655138,0.060101386,0.09930377,-0.25364095,-0.21267349,0.36179417,-0.021737007,0.012065171,-0.20216422,-0.59050715,-0.4024156,0.063649945,-0.44495916,-0.2308214,-0.04241968,-0.41086644,-0.42584494,0.12137528,-0.15371159,-0.38844714,0.16359112,-0.15819134,-0.25438884,0.14452134,-0.06083627,0.03515648,0.3462139,0.098098665,0.27996176,-0.12632442,-0.06496556,0.20960405,0.16130923,0.20216541,0.39451712,-0.22904311,-0.06681099,-0.21657567,-0.70867574,-0.64110434,-0.6077143,0.41067064,0.28122142,0.3140908,-0.07179778,-0.2398832,-0.2838769,-0.32508957,-0.36061585,-0.48854804,0.062393043,0.019486768,-0.20092975,-0.09915905,-0.29092187,-0.45336643,-0.0075780046,0.030486535,0.29597804,-0.18289717,-0.1719117,0.020374047,-0.1517488,-0.36326456,-0.32272965,0.13732123,-0.057530116,-0.09760504,0.2834907,-0.14312814,-0.112293325,0.121601425,-0.34200233,-0.42485097,0.098763466,0.02313113,-0.11568972,0.12809928,0.018000625,0.045314234,0.578533,0.43002552,0.5849858,-0.086750135,-0.10417929,-0.101244755,0.24787039,0.17003447,0.5242027,-0.078968495,-0.31679887,-0.45367,-0.3356902,-0.7380989,-0.6722437,0.21573791,-0.20471749,-0.19068421,0.259531,-0.011604782,-0.030247228,0.14664765,-0.07253485,-0.18075533,-0.02486685,-0.15030678,-0.15712924,0.058186408,0.07472099,0.09617358,-0.630318,-0.43014166,-0.26009235,-0.05488517,0.12760432,0.5450101,-0.060498532,0.03850471,0.1357308,0.028279962,0.1462379,0.42014244,-0.16415575,-0.23615716,-0.04123313,0.045730915,0.02646436,-0.2278247,0.64129174,0.5343215,0.2488981,0.2520784,0.16262786,-0.08648948,0.0746915,-0.00072139886,-0.3115699,0.26523155,0.1836293,0.35132444,0.5286317,0.4514961,0.6247182,0.10394227,-0.12289011,0.030059015,0.5403908,0.2589229,0.0894089,0.21895531,-0.09433127,-0.215704,-0.2791004,-0.8720324,-0.75460446,0.32156032,0.03342678,-0.087355904,0.05453524,-0.1279661,-0.062334936,-0.4656737,-0.4785464,-0.3470441,0.19591415,0.035070576,0.21624841,0.14611842,0.07865485,0.34869713,-0.013979968,-0.029162757,0.35918036,-0.09119216,-0.27739868,-0.07585503,-0.12900046,-0.1685538,0.12550744,-0.6847896,-0.647173,-0.17910036,0.36480647,0.42525816,0.43756944,-0.29032168,-0.27871665,-0.503915,-0.15111548,-0.18892437,-0.43718493,0.009415156,0.039331734,0.09074227,-0.3550193,-0.23914684,0.0036175458,-0.08670012,-0.03222775,0.23082958,0.09620653,0.14903362,0.41797814,-0.28844368,-0.18761674,0.124278806,-0.38752705,-0.3265572,-0.2834581,-0.25377783,-0.12126888,0.007306141,-0.19103685,-0.08848604,-0.08014748,0.06692563,0.07486605,-0.24833807,0.31286776,0.14122282,-0.12703228,0.6315172,0.45587638,0.39492112,-0.56021315,-0.6201256,-0.27657926,-0.113890246,-0.25054923,-0.3102009,-0.24952413,-0.46585616,-0.35567668,0.21720333,-0.25137535,-0.20211822,0.3037545,-0.25223622,-0.18235922,0.49684244,0.15367524,0.10597332,0.28984517,0.21679543,0.24135154,-0.37574163,-0.37364125,-0.39653662,-0.100999,-0.13241057,0.0045901937,0.106980905,-0.0077829934,0.19911264,-0.39855918,-0.548449,-0.13802151,0.35148957,0.04201025,0.088408664,0.11309846,0.05122153,0.2892509,0.09467722,-0.017024731,0.14032349,0.06693373,0.12764561,0.26794952,-0.045657706,-0.13436542,-0.0975104,0.5296353,0.19373444,0.17731749,-0.026946632,-0.035388645,0.14940523,-0.24905388,0.05029525,0.07406415,0.11844466,0.12948576,0.44691557,0.056786306,0.20860817,0.25419223,-0.19866925,0.09017557,0.38671726,-0.22551203,0.037890047,0.27207312,-0.3202165,-0.28076953,0.113882795,-0.29268914,-0.09948284,0.25606906,-0.37666777,-0.3180922,-0.31619626,0.230553,0.16162448,-0.04068154,0.09839307,0.23113883,0.21355389,-0.018183349,0.1015299,0.33494124,0.09038568,0.03566333,0.0041452087,-0.025383107,-0.28950697,-0.30314872,0.72857213,0.31948116,0.249508,0.6400306,0.11246957,0.041393843,0.2804653,-0.028814437,0.015731286,-0.28728703,-0.21508986,-0.034892585,0.66783583,0.4529162,0.50868034,0.0028066477,-0.19516626,-0.015550903,-0.1809884,-0.41613403,-0.29103774,-0.33355436,-0.5211918,-0.19752745,-0.05347868,-0.1236643,0.122563116,-0.13491744,-0.09838,0.22233197,0.56170267,0.33930784,0.3462139,0.07665053,0.15630253,0.15535758,-0.11556837,-0.029217524,0.04897405,-0.26220152,-0.27823624,-0.19414566,-0.13716641,0.038450155,0.20648775,-0.7976421,-0.516204,-0.45016357,0.023323363,0.07836652,0.10464179,0.0070557604,0.19676691,0.24834572,-0.7564013,-0.30402502,0.048825704,-0.42155942,-0.13995636,-0.02647191,-0.31404978,-0.14512731,0.06814727,-0.44012147,-0.32110345,-0.124909714,-0.43694758,-0.40387076,-0.43150178,-0.025546672,0.14534616,0.008171891,-0.13914107,-0.13505991,-0.008509576,-0.23234421,-0.25751612,-0.08814014,-0.15912646,-0.24339718,-0.1270714,-0.02141549,-0.19430596,-0.21576902,0.83887243,0.3371856,0.21820709,0.4858973,0.16661775,0.25461963,0.2273236,-0.10570651,0.0563511,-0.3480701,-0.3483698,-0.3256752,-0.1961284,-0.40747875,-0.19656862,0.4880948,0.26829094,0.5705848,0.14617273,-0.005576107,0.12254404,-0.1051478,-0.1498195,0.1291054,-0.14751168,-0.25917754,0.22026013,0.10409832,0.04711459,0.19485909,-0.5203039,-0.57191294,-0.5592702,-0.05519692,0.16408484,-0.049492545,-0.18417253,-0.1464717,-0.29598033,-0.058695607,0.1407876,0.22819206,-0.28945136,-0.12275587,0.07915517,-0.299908,-0.120981075,0.092228174,0.32198286,0.28165457,0.37400466,-0.06340245,0.32001826,0.32243493,-0.61824524,-0.3380632,-0.24075463,-0.09372438,0.06964443,0.29792073,-0.046567515,0.10196426,0.39216462,-0.25432813,-0.0049507464,0.14943524,-0.12387448,-0.095016114,-0.21638817,-0.27309144,-0.06953476,-0.07498403,-0.20572631,-0.007815409,0.13808395,-0.20420356,-0.23874259,0.22320262,0.2331216,0.082330756,0.24978365,-0.05255343,0.07464407,0.3606101,-0.09036943,-0.385583,-0.20564926,0.28654838,-0.0075286226,0.019242492,0.018114617,-0.17433888,-0.14864449,0.014165684,0.012586348,-0.27573097,-0.09811289,-0.39370033,-0.498277,0.38743758,0.13108592,0.20640218,0.015627524,-0.006774976,0.198834,-0.167879,-0.08591137,0.35264912,-0.18807119,0.015988724,0.4831107,0.24919242,0.32065472,0.30444974,-0.15626343,-0.038010016,-0.22783065,0.34384975,0.2607465,-0.1722739,-0.21428354,0.033839505,0.1531197,0.10412899,0.17447478,0.36231524,-0.08985909,-0.05378023,0.048891157,-0.30128,-0.08348865,-0.1748359,-0.18096359,-0.05715813,0.03839273,-0.21782768,0.12518129,0.22790918,-0.06232524,0.24099125,0.30060962,0.05099972,0.13807113,0.17436872,-0.007931012,0.12750803,0.27259022,-0.21076049,-0.08607527,0.020751094,0.20057303,0.04736564,-0.18177716,-0.49775004,-0.41323212,-0.678076,-0.1368496,-0.08137475,-0.014595142,-0.0011487576,0.01595451,0.2251098,-0.36167753,-0.4091799,-0.19125696,-0.16576594,0.08851678,0.39509097,-0.24787942,-0.3084444,-0.10736755,-0.2789023,-0.47681195,-0.46524137,-0.2439267,-0.29852903,-0.33920163,0.20842184,0.2320393,0.09345495,-0.2051344,-0.22240181,-0.10682974,-0.18359667,-0.15245701,0.035406016,0.0061390502,0.26621935,0.5871635,-0.14551806,-0.11283984,0.28475136,0.018217824,-0.028017534,0.1899199,-0.36392987,-0.034769226,0.121320456,-0.5585266,-0.32645538,-0.48632088,0.0062012705,0.24417453,0.06489789,0.18605602,0.16976093,0.34618554,0.5847825,0.5482461,0.5959978,0.06485223,0.0510675,0.36351162,-0.375662,-0.2794021,-0.046407323,-0.38676518,-0.15198167,-0.09396106,-0.30089435,0.022851067,0.20033589,-0.19869037,0.16545366,0.02943969,0.04291213,0.13721281,0.16949745,0.24318184,0.37475067,0.32301626,0.12241219,0.28774586,0.006397054,0.13060817,-0.011263151,-0.3735914,0.076190226,-0.0028274893,-0.363189,0.002249198,0.077536136,0.04015569,-0.2049903,-0.03976231,0.11302799,0.48033792,0.455014,0.44495723,0.20353529,0.075613074,0.2737592,0.41416243,0.4416367,0.35435826,-0.33725497,-0.48763677,-0.6831513,-0.062261414,-0.13617457,-0.0092825955,-0.32165056,-0.1898171,-0.10154671,-0.034522474,0.269472,0.427292,-0.111845426,0.012950745,0.25866756,-0.5163525,-0.20906363,-0.028756185,-0.10240709,0.035769984,-0.006599134,0.32346466,0.14281222,0.113478616,-0.33156294,-0.20541435,-0.43474498,0.7912616,0.4595445,0.0718168,0.31866813,0.26303098,0.40976408,-0.25473407,-0.37029138,-0.009761872,-0.052295987,-0.22273761,-0.21072915,-0.269111,-0.13711052,-0.066842966,-0.41220707,-0.45787787,-0.34025156,-0.46998155,-0.20875505,-0.17401752,-0.16974744,-0.07446581,-0.065845646,-0.4006211,-0.032196153,-0.060029726,-0.01304949,0.33501357,0.39615905,-0.28540254,0.17298047,0.51230264,0.21265015,0.43311602,0.37246776,0.020318191,0.055731405,-0.5045031,-0.09664977,-0.16211705,-0.4741057,-0.14527649,0.029185029,-0.16707674,0.111206755,0.30483642,0.22187413,-0.075963855,0.0006433385,-0.07169965,-0.094162166,-0.086261414,-0.06060892,0.103844784,0.13571411,0.04568489,-0.15857132,-0.14335029,-0.29699728,-0.42652357,-0.27775142,-0.29457104,-0.3609134,-0.124028735,-0.27336535,0.3774524,0.5241845,0.42138714,-0.2422594,-0.07863919,-0.070040636,-0.20843995,0.09161439,-0.13077824,-0.1272917,0.004931615,-0.033465654,-0.6355339,-0.47256207,-0.53604656,-0.45262322,-0.31927195,-0.21045259,0.04311771,0.166471,0.12847435,0.027336882,0.35870507,0.38247934,0.22833337,0.27827093,0.39976195,0.15568879,0.18459408,0.14398031,-0.40021303,-0.29749343,-0.31932086,-0.5403847,-0.42442995,-0.50079286,-0.10258799,-0.0074451165,0.016717514,-0.2109096,0.06002342,-0.09317749,-0.065812536,0.17308183,-0.0820502,-0.11309807,0.30428043,0.20842962,0.2410906,0.5999212,0.7349562,-0.21950454,0.008413767,0.057101376,-0.008934111,-0.04350944,-0.32517278,-0.32851452,-0.16715498,-0.2645343,-0.22845645,0.025149185,-0.10441673,-0.34036377,-0.33459443,-0.19512159,-0.3798751,-0.4731889,-0.2911071,0.45237514,0.30412772,0.39788565,0.048383135,0.038250104,-0.057328973,-0.33444118,-0.38369063,-0.29122755,-0.31087112,-0.17311925,-0.012489479,-0.102894686,0.058818776,0.11366855,0.10086755,0.25245813,0.050251607,0.029035881,0.06825842,-0.25975072,-0.50388455,-0.22873303,-0.24306701,-0.09868162,0.1469502,0.1145864,-0.44439662,-0.08575664,-0.12092668,-0.36051622,-0.014551789,-0.18875724,-0.028711773,0.37342674,0.40256867,-0.2976407,-0.0046882154,-0.1127207,-0.2482649,-0.050329138,-0.11459667,0.11281893,0.15916266,-0.12208443,0.17761855,0.419407,0.49794936,-0.11823057,0.039949358,0.14778623,-0.028712874,0.3167039,0.37731388,-0.26847813,-0.05523118,-0.24742918,-0.23995459,0.07545178,-0.076082416,-0.2057361,0.21345353,0.37225217,-0.42970482,-0.034996845,-0.07118902,-0.35537317,-0.06484772,-0.16264726,0.0055529657,0.27500734,0.3098614,-0.2392205,0.037227996,0.023513352,-0.14487317,-0.033701338,0.015332367,-0.30499446,-0.10252314,0.13153808,-0.3076883,-0.2268515,-0.016832154,0.043660916,0.32817847,0.5496892,-0.35122547,-0.048874523,0.0036890288,-0.12843795,0.11882092,0.2851883,-0.47070268,-0.087525316,0.43344402,-0.11224921,0.22693291,0.2962839,-0.22905342,0.016230825,0.14588295,-0.42225808,0.006324399,0.28657776,-0.48558864,-0.1965552,-0.11983624,-0.3479764,0.09380115,0.14648552,0.026060348,0.2685518,0.087193035,-0.37210122,0.25185657,0.23133974,-0.7004051,-0.13949846,-0.07077978,-0.11778768,0.3688154,0.39726067,-0.3888696,-0.108651645,-0.25483945,-0.22874318,-0.08742028,-0.116188735,-0.3591938,0.0982906,0.377469,-0.022229316,0.36496845,0.51585424,-0.3371895,0.10309349,0.17679192,0.12893207,0.1433437,0.077062316,0.12116158,0.29793224,0.33288568, /* bias */ -2.2725937};

float processModel(const float* input)
{
    float o1 = 0;
    for(int i = 0; i < 2353; i++)
    {
        if(i == 2352)
        {
            o1 += aim_kernel[i]; // bias
            o1 = tanh(o1);
        }
        else
        {
            o1 += input[i] * aim_kernel[i]; // weight
        }
    }

    const float out = (o1 * 6.181947) + -1.3916619;
    return (out+7.6) * 0.065789474;
}

uint64_t microtime()
{
    struct timeval tv;
    struct timezone tz;
    memset(&tz, 0, sizeof(struct timezone));
    gettimeofday(&tv, &tz);
    return 1000000 * tv.tv_sec + tv.tv_usec;
}

// adapted from ogre3d asm_math.h
// https://www.flipcode.com/archives/07-15-2002.shtml
// https://www.cs.cmu.edu/afs/andrew/scs/cs/oldfiles/15-494-sp09/dst/A/sw/ogre-1.6.4/OgreMain/include/asm_math.h
// https://gist.github.com/mrbid/51ed2963c88981452a5f87a3b072f8fb#file-random_float_bench-c-L71
float rndFloat(const __int64_t seed) // forces the -Ofast mode to produce code containing sqrt
{
    static __int64_t q = 8008135;
    if(seed != 0)
        q = seed;

    __m64 mm0 = _mm_cvtsi64_m64(q);
    __m64 mm1 = _m_pshufw(mm0, 0x1E);
    mm0 = _mm_add_pi32(mm0, mm1);
    q = _m_to_int64(mm0);

    _m_empty();
    return q;
}

int main()
{
    rndFloat(time(0));
    setlocale(LC_NUMERIC, "");
    float ret = 0;

    float input[2352];
    for(int i = 0; i < 2352; i++)
        input[i] = rndFloat(0);

    uint64_t st = microtime();
    uint64_t count = 0;
    while(microtime()-st < 3000000)
    {
        ret += processModel(&input[0]);
        count++;
    }
    printf("3 Seconds of Executions: %'lu\n", count);
    
    st = microtime();
    for(int i = 0; i < 1000000; i++)
        ret += processModel(&input[0]);
    printf("1,000,000 Exections Microseconds: %'lu\n", microtime()-st);

    st = __rdtsc();
    ret += processModel(&input[0]);
    printf("Cycles: %'llu\n", __rdtsc()-st);

    printf("%c\n", (char)ret); // forces the compiler to not disregard the functions we are testing
    return 0;
}
